digraph Tree {
node [shape=box, style="filled", color="black"] ;
0 [label="hour_scaled <= -0.729\nmse = 32860.236\nsamples = 8708\nvalue = 192.817", fillcolor="#e5813964"] ;
1 [label="hour_scaled <= -0.874\nmse = 1531.285\nsamples = 2490\nvalue = 32.691", fillcolor="#e581390f"] ;
0 -> 1 [labeldistance=2.5, labelangle=45, headlabel="True"] ;
2 [label="hour_scaled <= -1.452\nmse = 936.114\nsamples = 2123\nvalue = 25.31", fillcolor="#e581390b"] ;
1 -> 2 ;
3 [label="workingday <= 0.5\nmse = 1598.756\nsamples = 718\nvalue = 44.964", fillcolor="#e5813915"] ;
2 -> 3 ;
4 [label="atemp <= 23.862\nmse = 1749.432\nsamples = 243\nvalue = 82.605", fillcolor="#e5813929"] ;
3 -> 4 ;
5 [label="mse = 1344.761\nsamples = 142\nvalue = 64.0", fillcolor="#e581391f"] ;
4 -> 5 ;
6 [label="mse = 1147.508\nsamples = 101\nvalue = 108.762", fillcolor="#e5813937"] ;
4 -> 6 ;
7 [label="hour_scaled <= -1.597\nmse = 426.03\nsamples = 475\nvalue = 25.707", fillcolor="#e581390b"] ;
3 -> 7 ;
8 [label="mse = 497.184\nsamples = 234\nvalue = 35.774", fillcolor="#e5813910"] ;
7 -> 8 ;
9 [label="mse = 163.033\nsamples = 241\nvalue = 15.934", fillcolor="#e5813906"] ;
7 -> 9 ;
10 [label="workingday <= 0.5\nmse = 299.207\nsamples = 1405\nvalue = 15.266", fillcolor="#e5813905"] ;
2 -> 10 ;
11 [label="hour_scaled <= -1.307\nmse = 559.175\nsamples = 452\nvalue = 24.562", fillcolor="#e581390a"] ;
10 -> 11 ;
12 [label="mse = 599.803\nsamples = 112\nvalue = 54.732", fillcolor="#e581391b"] ;
11 -> 12 ;
13 [label="mse = 147.176\nsamples = 340\nvalue = 14.624", fillcolor="#e5813905"] ;
11 -> 13 ;
14 [label="hour_scaled <= -1.018\nmse = 115.484\nsamples = 953\nvalue = 10.857", fillcolor="#e5813903"] ;
10 -> 14 ;
15 [label="mse = 20.34\nsamples = 711\nvalue = 6.169", fillcolor="#e5813901"] ;
14 -> 15 ;
16 [label="mse = 140.687\nsamples = 242\nvalue = 24.632", fillcolor="#e581390a"] ;
14 -> 16 ;
17 [label="workingday <= 0.5\nmse = 2835.867\nsamples = 367\nvalue = 75.39", fillcolor="#e5813926"] ;
1 -> 17 ;
18 [label="season <= 1.5\nmse = 237.957\nsamples = 116\nvalue = 19.629", fillcolor="#e5813908"] ;
17 -> 18 ;
19 [label="atemp <= 19.695\nmse = 36.379\nsamples = 26\nvalue = 6.077", fillcolor="#e5813900"] ;
18 -> 19 ;
20 [label="mse = 13.967\nsamples = 22\nvalue = 5.182", fillcolor="#e5813900"] ;
19 -> 20 ;
21 [label="mse = 131.0\nsamples = 4\nvalue = 11.0", fillcolor="#e5813903"] ;
19 -> 21 ;
22 [label="atemp <= 16.288\nmse = 227.804\nsamples = 90\nvalue = 23.544", fillcolor="#e581390a"] ;
18 -> 22 ;
23 [label="mse = 91.134\nsamples = 22\nvalue = 16.955", fillcolor="#e5813906"] ;
22 -> 23 ;
24 [label="mse = 253.425\nsamples = 68\nvalue = 25.676", fillcolor="#e581390b"] ;
22 -> 24 ;
25 [label="season <= 1.5\nmse = 1935.489\nsamples = 251\nvalue = 101.159", fillcolor="#e5813933"] ;
17 -> 25 ;
26 [label="atemp <= 14.015\nmse = 934.737\nsamples = 66\nvalue = 62.258", fillcolor="#e581391f"] ;
25 -> 26 ;
27 [label="mse = 658.738\nsamples = 45\nvalue = 49.8", fillcolor="#e5813918"] ;
26 -> 27 ;
28 [label="mse = 480.998\nsamples = 21\nvalue = 88.952", fillcolor="#e581392d"] ;
26 -> 28 ;
29 [label="weather <= 2.5\nmse = 1560.004\nsamples = 185\nvalue = 115.038", fillcolor="#e581393b"] ;
25 -> 29 ;
30 [label="mse = 1197.555\nsamples = 164\nvalue = 121.018", fillcolor="#e581393e"] ;
29 -> 30 ;
31 [label="mse = 1929.937\nsamples = 21\nvalue = 68.333", fillcolor="#e5813922"] ;
29 -> 31 ;
32 [label="atemp <= 23.105\nmse = 31026.648\nsamples = 6218\nvalue = 256.939", fillcolor="#e5813987"] ;
0 -> 32 [labeldistance=2.5, labelangle=-45, headlabel="False"] ;
33 [label="season <= 1.5\nmse = 20261.535\nsamples = 2764\nvalue = 184.79", fillcolor="#e5813960"] ;
32 -> 33 ;
34 [label="hour_scaled <= 1.151\nmse = 11408.61\nsamples = 1391\nvalue = 134.791", fillcolor="#e5813945"] ;
33 -> 34 ;
35 [label="atemp <= 14.773\nmse = 12745.5\nsamples = 1048\nvalue = 154.861", fillcolor="#e5813950"] ;
34 -> 35 ;
36 [label="mse = 8550.9\nsamples = 572\nvalue = 126.304", fillcolor="#e5813941"] ;
35 -> 36 ;
37 [label="mse = 15628.557\nsamples = 476\nvalue = 189.176", fillcolor="#e5813963"] ;
35 -> 37 ;
38 [label="hour_scaled <= 1.44\nmse = 2332.855\nsamples = 343\nvalue = 73.469", fillcolor="#e5813925"] ;
34 -> 38 ;
39 [label="mse = 2654.094\nsamples = 171\nvalue = 94.187", fillcolor="#e5813930"] ;
38 -> 39 ;
40 [label="mse = 1162.507\nsamples = 172\nvalue = 52.872", fillcolor="#e581391a"] ;
38 -> 40 ;
41 [label="hour_scaled <= 1.151\nmse = 24131.897\nsamples = 1373\nvalue = 235.445", fillcolor="#e581397b"] ;
33 -> 41 ;
42 [label="weather <= 2.5\nmse = 26088.099\nsamples = 1003\nvalue = 272.862", fillcolor="#e581398f"] ;
41 -> 42 ;
43 [label="mse = 25196.179\nsamples = 908\nvalue = 285.95", fillcolor="#e5813996"] ;
42 -> 43 ;
44 [label="mse = 17327.231\nsamples = 95\nvalue = 147.768", fillcolor="#e581394c"] ;
42 -> 44 ;
45 [label="hour_scaled <= 1.44\nmse = 4745.354\nsamples = 370\nvalue = 134.014", fillcolor="#e5813945"] ;
41 -> 45 ;
46 [label="mse = 5357.659\nsamples = 183\nvalue = 168.186", fillcolor="#e5813957"] ;
45 -> 46 ;
47 [label="mse = 1885.058\nsamples = 187\nvalue = 100.572", fillcolor="#e5813933"] ;
45 -> 47 ;
48 [label="hour_scaled <= 1.295\nmse = 32142.265\nsamples = 3454\nvalue = 314.675", fillcolor="#e58139a6"] ;
32 -> 48 ;
49 [label="hour_scaled <= 0.572\nmse = 32559.065\nsamples = 2890\nvalue = 342.213", fillcolor="#e58139b4"] ;
48 -> 49 ;
50 [label="workingday <= 0.5\nmse = 23632.998\nsamples = 1775\nvalue = 285.923", fillcolor="#e5813996"] ;
49 -> 50 ;
51 [label="mse = 30785.791\nsamples = 514\nvalue = 360.949", fillcolor="#e58139be"] ;
50 -> 51 ;
52 [label="mse = 17487.778\nsamples = 1261\nvalue = 255.342", fillcolor="#e5813986"] ;
50 -> 52 ;
53 [label="hour_scaled <= 1.006\nmse = 33694.655\nsamples = 1115\nvalue = 431.823", fillcolor="#e58139e4"] ;
49 -> 53 ;
54 [label="mse = 36865.767\nsamples = 705\nvalue = 481.475", fillcolor="#e58139ff"] ;
53 -> 54 ;
55 [label="mse = 16713.535\nsamples = 410\nvalue = 346.446", fillcolor="#e58139b7"] ;
53 -> 55 ;
56 [label="hour_scaled <= 1.585\nmse = 6207.707\nsamples = 564\nvalue = 173.562", fillcolor="#e581395a"] ;
48 -> 56 ;
57 [label="atemp <= 29.925\nmse = 5725.321\nsamples = 386\nvalue = 200.054", fillcolor="#e5813968"] ;
56 -> 57 ;
58 [label="mse = 4298.222\nsamples = 183\nvalue = 171.667", fillcolor="#e5813959"] ;
57 -> 58 ;
59 [label="mse = 5630.455\nsamples = 203\nvalue = 225.645", fillcolor="#e5813976"] ;
57 -> 59 ;
60 [label="weather <= 2.5\nmse = 2431.336\nsamples = 178\nvalue = 116.112", fillcolor="#e581393b"] ;
56 -> 60 ;
61 [label="mse = 2310.952\nsamples = 158\nvalue = 121.848", fillcolor="#e581393e"] ;
60 -> 61 ;
62 [label="mse = 1069.26\nsamples = 20\nvalue = 70.8", fillcolor="#e5813923"] ;
60 -> 62 ;
}